0.680375
-0.211234
0.566198
0.59688
0.823295
-0.61412
-0.258366
0.536459
-0.326201
0.162169
-0.0252614
0.347041
-0.343336
0.0268018
0.904459
0.765731
0.271423
0.434594
-0.716795
0.182994
-0.967399
-0.514226
-0.725537
0.518715
-0.761539
-0.0921028
-0.686951
-0.782382
0.997849
-0.585931
0.0258648
0.678224
0.22528
-0.407937
0.275105
0.0485744
-0.012834
0.94555
-0.414966
0.542715
0.05349
0.539828
-0.199543
0.783059
-0.433371
-0.295083
0.615449
0.838053
-0.860489
0.898654
0.0519907
-0.827888
-0.615572
0.326454
0.780465
-0.302214
-0.871657
-0.959954
-0.0845965
-0.873808
-0.52344
0.941268
0.804416
0.70184
-0.466669
0.0795207
-0.249586
0.520497
0.0250707
0.335448
0.0632129
-0.921439
-0.124725
0.86367
0.86162
0.441905
-0.431413
0.477069
0.279958
-0.291903
0.375723
-0.668052
-0.119791
0.76015
0.658402
-0.339326
-0.542064
0.786745
-0.29928
0.37334
1.021
0.274635
0.309824
0.717353
-0.12088
0.855036
-0.262854
0.629534
0.368437
0.821944
-0.0350187
-0.643315
0.962069
0.875784
-0.70468
0.762124
0.270725
-0.178926
0.239193
-0.437881
0.572004
-0.385084
-0.0583089
-0.473045
-0.558735
-0.537549
0.112888
-0.166997
-0.660786
0.831841
-0.685591
-0.650494
-0.0138964
0.52095
0.969503
0.877105
0.309162
-0.233623
0.499542
-0.262673
-0.411679
-0.610441
0.230541
-0.475647
-0.69522
0.464297
-0.760486
0.544107
-0.671796
0.490143
-0.85094
0.900208
-0.847318
0.117869
-0.58138
-0.609893
0.595596
0.465309
0.313127
0.953044
0.386984
0.616825
-0.817824
-0.730195
0.0404201
-0.836439
-0.919915
-0.59069
-0.0771591
0.639355
0.146637
0.436197
-0.834558
-0.648858
0.999987
-0.591343
0.768475
-0.791896
0.995598
-0.891885
0.74108
-0.855342
-0.944053
0.92088
0.253983
-0.729273
-0.673737
-0.21662
0.826053
0.657624
-0.173742
0.202325
0.154075
-0.0948483
0.374775
-0.793623
0.00188836
0.514588
-0.39141
0.984457
0.153942
0.680263
0.557183
0.293348
-0.929158
0.495606
0.655041
0.80792
0.746543
0.662075
0.958868
0.487622
0.854357
1.04193
0.399959
-0.0955009
-0.672064
0.660024
0.777898
-0.827777
0.299414
-0.503912
0.258959
-0.541726
0.40124
-0.366266
-0.342446
-0.537144
-0.851678
0.266144
-0.552687
0.302264
0.0213719
0.942931
-0.439916
0.0922138
0.438537
-0.773439
-0.0570331
0.18508
0.888636
-0.0981649
-0.327298
0.695369
-0.130973
-0.993537
-0.310114
0.196963
0.666487
-0.532217
0.350952
-0.0340994
-0.0361284
-0.390089
0.424175
-0.634888
0.243646
-0.918271
-0.172033
0.391968
0.347873
0.27528
-0.305768
-0.630755
0.218212
0.254316
0.461459
-0.343251
0.480877
-0.595574
0.841829
0.369513
0.306261
-0.485469
0.0648819
-0.824713
-0.479006
0.754768
0.37225
-0.81252
-0.777449
-0.276798
0.153381
0.186423
0.333113
-0.431667
0.622723
-0.423241
-0.222466
-0.566269
0.988671
-0.903543
0.581878
-0.337042
-0.623598
-0.193665
0.917274
0.837861
0.529743
0.367207
-0.757714
0.371572
-0.232336
0.458908
0.811205
0.938554
0.777302
-0.592904
0.587314
0.0736397
-0.405423
0.809865
0.819286
0.747958
-0.00371215
0.152399
-0.674487
-0.452178
0.729158
-0.0152024
-0.0726757
0.697884
-0.00804521
-0.417893
-0.639158
0.368357
0.455101
-0.721884
0.206218
-0.0151566
0.676267
0.448504
-0.643585
-0.556069
-0.00294904
-0.757482
-0.723523
-0.279115
-0.350386
0.863791
0.816969
0.244191
0.673656
0.636255
-0.00785116
-0.33928
-0.140158
0.317662
0.336015
-0.427958
-0.677596
-0.765611
-0.857208
0.294415
-0.272803
-0.49012
-0.337228
-0.817703
-0.145345
0.838045
0.167141
-0.469077
0.317493
0.433917
-0.100043
-0.579447
0.819541
0.251331
0.0354294
-0.606757
0.223188
-0.0502463
0.655094
-0.211223
-0.511346
-0.340876
0.398993
0.277308
0.969689
-0.323514
0.795121
-0.802815
-0.11686
-0.953655
0.566564
0.548772
-0.42408
-0.813498
0.73107
0.442012
-0.901675
-0.10179
1.02056
0.49056
-0.512036
-0.14223
0.730362
-0.812161
-0.800881
-0.215975
-0.396474
0.31424
0.618191
-0.736596
-0.896983
-0.893155
-0.0845688
0.561737
0.384153
-0.11488
-0.761777
0.179273
0.15727
0.0597984
0.190091
-0.276166
-0.391429
0.777447
-0.0468307
-0.660359
0.219458
0.0514942
0.237851
0.192392
-0.532688
0.659617
-0.85982
-0.802325
0.847456
-0.660701
-0.0365333
-0.549018
0.653539
-0.418343
-0.285614
0.756555
-0.311498
0.629817
0.318292
-0.927345
-0.485062
0.556515
0.251928
0.672207
-0.383687
-0.557981
-0.603959
0.224884
-0.780535
0.34921
0.564525
0.438924
-0.599295
-0.197625
-0.368684
-0.131983
-0.538008
-0.228504
0.065692
-0.690552
0.110795
-0.970841
-0.239571
-0.235666
-0.389184
0.474815
-0.47911
0.299318
0.104633
0.839182
0.371973
0.619571
0.395696
-0.376099
0.291778
-0.98799
0.0659197
0.687819
0.236894
0.285385
0.0370298
-0.198582
-0.275691
0.437734
0.603793
0.355625
-0.694248
-0.934215
-0.872879
0.371444
-0.624767
0.237917
0.400602
0.135662
-0.997749
-0.988582
-0.389522
-0.476859
0.310736
0.71511
-0.637678
-0.317291
0.334681
0.758019
0.30661
-0.373541
0.770028
-0.62747
-0.685722
0.00692197
0.657915
0.351308
0.80834
-0.617777
-0.210957
0.412133
0.737848
0.0947942
0.477919
0.864969
-0.425695
0.950507
0.0981013
0.86684
-0.0111862
0.112234
0.818531
0.599291
0.628277
0.188995
0.314402
0.915635
0.933268
-0.31539
0.748619
0.178313
0.264106
0.475814
0.550843
0.58982
-0.474431
0.208758
-0.0112476
-0.591349
0.657179
0.640153
0.746043
0.328829
-0.175035
0.242195
0.193798
0.291203
0.077113
-0.703316
0.158043
-0.943296
0.473009
0.0363013
0.783468
0.0843275
-0.75476
0.0689194
-0.0522066
-0.903001
0.628703
-0.297342
0.275313
-0.0957552
-0.712036
-0.204788
-0.505935
-0.186467
-0.965087
0.345555
0.0725452
0.731902
0.218832
-0.106515
-0.0452772
0.967885
-0.882554
-0.851479
0.281533
0.19456
-0.554795
-0.560424
0.260486
0.847025
0.475877
-0.0742955
-0.122876
0.701173
0.905325
0.897822
0.798172
0.534027
-0.332862
0.073485
-0.561728
-0.0448975
0.899641
-0.0676628
0.768636
0.934554
-0.632469
-0.083922
0.560448
0.532895
0.809563
-0.484829
0.523225
0.92701
-0.336308
-0.195242
0.121569
0.108896
0.244333
-0.617945
-0.0440782
-0.27979
0.30776
0.833045
-0.578617
0.213084
0.730867
-0.780445
-0.252888
-0.601995
0.29304
0.185384
0.353108
0.192681
-0.882279
0.121744
0.127235
-0.514748
-0.962178
-0.312317
-0.981853
0.847385
0.31092
0.638727
0.769609
0.866545
-0.653871
-0.0969401
-0.0842862
0.590463
0.278018
0.931363
-0.689327
-0.489186
0.825973
-0.232416
0.798863
0.495276
-0.0598249
-0.496859
0.893281
-0.755348
0.731358
0.246389
0.484957
0.923821
-0.565669
-0.52545
-0.665669
-0.594046
0.25225
-0.629289
-0.746662
-0.544896
0.893849
-0.972267
-0.678351
-0.769244
-0.00511628
0.29709
0.948691
-0.744057
0.248398
-0.769587
-0.285412
-0.00713807
-0.12683
-0.480304
-0.511863
0.824781
0.132329
-0.649525
-0.930567
-0.136313
0.627807
0.417127
-0.362131
1.10195
-0.875199
0.0470968
-0.598106
0.301139
0.612625
-0.144384
0.758724
0.293424
-0.317035
-0.895834
0.533402
0.661516
0.397426
0.363843
0.769074
-0.374121
0.504957
-0.404134
0.819218
-0.621873
0.0552191
-0.988745
-0.797092
-0.636081
-0.511703
-0.766498
0.178237
-0.883895
0.886823
0.709919
-0.991606
0.850439
-0.0619
-0.444668
0.387073
-0.461942
0.149207
-0.0472907
0.631098
0.855965
0.0530451
0.219356
0.458795
-0.549529
-0.510956
0.26717
0.0763506
-0.966699
1.06351
-0.304908
-0.715574
-0.0503664
-0.198029
-0.336295
0.359808
0.251429
-0.113322
-0.461955
0.514089
-0.5153
-0.674603
0.518417
-0.483777
0.408542
-0.754595
0.890629
0.684859
0.201525
-0.357045
0.339751
0.0536604
0.750855
-0.499579
-0.487544
-0.892829
0.0287644
0.779625
0.222822
0.262543
0.642662
0.790912
0.37787
-0.312081
-0.230747
-0.912169
-0.991113
-0.989848
-0.0254917
-0.306512
0.235441
0.536642
0.0148191
-0.0650583
-0.80209
-0.404982
0.16768
0.826798
-0.913211
-0.831178
-0.506453
0.42271
0.277338
-0.814283
0.92313
0.695638
-0.667812
-0.0481053
0.514564
0.755487
-0.98604
0.030223
0.3773
0.487454
0.894513
-0.807192
0.536446
0.89287
-0.797039
-0.34249
-0.702442
0.515835
-0.809915
0.493461
-0.404179
-0.653399
0.875428
0.521724
-0.806637
0.962217
0.681323
-0.245732
0.384927
0.0312778
-0.0769744
0.328002
-0.262734
0.12808
-0.740048
-0.83747
-0.310665
-0.726088
0.319755
-0.771082
0.730422
0.164899
-0.578274
0.336651
-0.031869
-0.45021
0.992453
0.589879
-0.755828
-0.92347
0.00742754
-0.0933332
-0.479514
-0.0994849
-0.679676
-0.383506
-0.125386
-1.04886
0.299573
-0.747556
-0.0761019
-0.831631
0.485537
0.633429
0.404881
0.820453
0.734395
-0.886088
-0.948468
0.0541499
-0.645734
0.855732
-0.780951
-0.176384
0.267124
0.343017
0.310661
0.0788268
-0.18677
0.644852
0.17359
0.843102
-0.556548
0.578487
-0.251598
-0.236225
-0.805019
0.615919
-0.225355
0.494554
0.868362
0.698543
0.662924
0.428863
0.270408
0.0322771
0.249316
0.00480253
0.157625
0.343682
-0.941048
0.511891
0.199413
-0.721998
-0.712117
-0.608204
0.55482
0.688562
0.470623
-0.631949
0.333414
-0.374021
-0.788847
0.776866
-0.795533
-0.0404457
-0.459359
-0.600552
-0.424527
0.315286
0.894002
-0.556165
0.0138293
0.556925
0.872698
-0.715763
-0.410797
0.122015
0.28904
0.746828
-0.534304
0.347992
0.258719
0.665109
0.625994
0.546602
-0.943095
0.180814
0.235164
0.527528
0.548865
-0.323354
-0.749138
0.755233
-0.654556
-0.642027
-0.273332
-0.173642
-0.242579
0.295044
-0.798629
-0.348577
0.663915
0.276765
-0.756124
0.611578
0.499438
-0.213885
-0.309241
-0.211522
-0.455621
0.199289
-0.86353
0.850721
-0.06086
0.828662
0.259681
-0.0786967
-0.0567224
-0.415137
-0.532936
-0.507858
0.153442
-0.397662
-0.74784
0.498886
-0.039689
-0.0282685
-0.615028
0.717732
-0.733224
-0.413657
-0.630845
-0.994344
0.801544
-0.422497
0.617234
0.300981
0.375054
-0.649174
-0.910541
0.919433
0.550115
-0.774071
0.72253
-0.585487
0.988392
0.0722291
0.335817
-0.0683305
0.657093
0.997698
0.624195
-0.209429
-0.613015
0.675972
-0.695972
0.418484
-0.297441
-0.187358
0.119258
-0.104876
0.370035
0.361278
-0.0798651
0.282756
-1.05497
-0.589634
-0.712363
0.386741
-0.0933806
-0.52728
0.267334
-0.56169
-0.390991
0.061523
-0.222252
-0.363143
-0.899067
-0.81136
0.637659
0.758025
0.973287
0.0425216
-0.43144
-0.639727
-0.281507
-0.122019
0.707569
0.366197
0.572373
-0.227403
-0.719324
-0.146891
-0.79322
0.200811
0.935388
-0.781533
0.738179
-0.681351
0.605207
-0.373626
-0.208632
-0.0886192
0.0646838
0.490017
0.940084
0.917507
-0.822943
-0.958983
-0.893853
0.795766
0.799042
-0.920566
-0.161712
-0.632398
-0.560293
0.556781
0.245583
-0.852724
-0.0770222
-0.182044
-0.080127
0.203654
0.671065
0.126653
-0.595535
0.606453
0.34512
-0.857356
0.925102
-0.0496723
-0.230982
-0.283529
0.861709
0.833702
-0.793513
0.801793
0.751209
-0.616456
0.842809
1.07041
-0.620307
0.621888
0.936789
0.0175978
-0.99594
-0.552316
-0.370766
0.373285
-0.421999
0.478001
-0.837709
0.37074
-0.298989
0.944534
-0.496361
-0.0215269
0.254887
0.915419
0.266544
0.275612
-0.173093
-0.982863
0.902444
-0.239725
0.775764
-0.851613
-0.470752
0.602048
-0.398937
-0.627943
0.459403
-0.238576
-0.986092
0.396193
0.779022
-0.976639
0.772689
-0.646599
0.278397
-0.703539
0.850757
0.351389
0.740105
-0.448232
0.0954457
-0.689596
0.657243
-0.554044
-0.774178
-0.0946377
0.721568
0.0915689
-0.0775005
0.713652
0.819024
-0.226661
0.912222
-0.651729
-0.624614
-0.397597
-0.182316
0.830005
0.25576
-0.265763
0.238079
-0.0249462
-0.242402
0.00367067
0.388182
-0.964005
0.225167
0.300504
0.422912
0.0402365
0.790707
-0.528606
0.307807
0.447951
-0.0712142
0.576463
-0.646687
-0.302022
-0.257227
0.342011
-0.726012
-0.512945
-0.950849
-0.723773
-0.14644
-0.575463
-0.229437
0.555655
-0.740673
-0.973677
-0.710108
0.490309
0.0611044
0.0474907
-0.506021
-0.550713
0.083486
0.794111
0.688226
-0.52913
-0.165653
0.478933
-0.0463
-0.815013
-0.073116
0.882486
0.76145
0.280197
-0.46716
-0.570518
-0.443991
-0.103154
-0.0834629
-0.39484
0.173073
0.751864
0.0296976
0.943636
0.307519
0.289024
0.969959
0.597412
-0.220667
0.0310637
-0.355098
0.273313
0.48035
0.728389
0.0674233
0.168576
-0.800741
0.901771
-0.35249
0.152959
-0.913242
0.574394
0.0354445
0.848208
-0.145409
0.568284
-0.72231
0.4106
-0.53487
0.194227
-0.98424
0.74627
0.0434459
0.0406732
0.58184
-0.74639
-0.658421
0.492071
0.851022
0.113815
-0.417137
-0.504075
-0.687836
-0.875223
-0.740159
0.454551
0.231789
-0.587864
0.313489
0.879299
0.576531
0.44308
0.453692
-0.340401
0.36603
-0.625519
-0.909758
0.568978
0.718883
-0.35461
-0.218562
0.734643
-0.716407
0.709296
-0.219899
0.865432
0.962907
0.114583
0.417231
0.813929
-0.771602
-0.999906
-0.690147
-0.384474
-0.936694
-0.465834
-0.929922
0.295095
-0.0422618
0.4264
0.174394
-0.465731
-0.13052
-0.371914
0.146244
-0.839232
-0.0636308
0.326503
0.729746
-0.344748
0.971893
-0.293998
-0.409721
-0.764478
-0.797753
0.169996
-0.875252
-0.834846
-0.660566
0.538149
0.979083
-0.526323
0.538243
-0.711064
0.128503
0.802026
-0.176898
0.0715792
-0.198979
0.780841
-0.32565
-0.928961
-0.72373
0.494461
-0.300875
0.56907
0.474145
0.531843
-0.212144
0.384975
-0.66786
-0.240251
0.877927
-0.319359
0.0152343
-0.919826
0.841414
0.20734
-0.754672
-0.746535
-0.27147
-0.755645
-0.262508
-0.860361
-0.486653
0.776696
0.747434
0.336449
-0.0247224
-0.289263
0.0863457
0.600259
-0.218224
0.432399
0.00508123
0.406004
-0.000239541
-0.196583
0.116395
0.681608
-0.88752
0.407141
-0.558643
-0.987149
-0.912217
0.456591
-0.916198
1.00961
-0.407257
-0.543397
-0.872135
0.286989
-0.347936
-0.351077
0.479588
0.0761107
-0.568135
0.293681
-0.58744
0.473802
-1.02653
0.529849
0.0740604
-0.213805
-0.12739
-0.906117
-0.626896
0.909468
-0.0812705
0.383491
0.515164
0.266704
-0.00898446
0.959002
0.0665052
-0.121585
0.439387
0.159531
-0.128311
-0.9717
0.497884
-0.14883
0.295345
-0.939352
0.612297
-0.0245903
0.136759
-1.01618
-1.02701
0.549319
0.633992
-0.926968
0.0403288
-0.341317
-0.140773
-0.850867
-0.35362
0.0226714
0.897416
0.746193
-0.448793
0.435025
-0.200153
0.300445
0.413991
0.866352
-0.821141
-0.150453
0.0258828
-0.00430643
-0.122152
-0.476233
0.886163
-0.826808
-0.415585
0.49846
-0.0518749
0.721174
0.609281
0.0167388
0.270492
0.193904
0.0897709
-0.65034
0.852588
0.948997
-0.608924
-0.319949
0.0753196
-0.711507
-0.573756
0.693199
0.820872
0.221307
-0.114423
0.137508
0.0995406
0.00470905
0.987055
-0.881673
-0.93987
-0.135097
-0.432871
1.00786
0.0736233
0.226508
0.444753
0.974785
-0.0951515
0.0540346
0.00295953
-0.781826
-0.752061
-0.859646
-0.357424
-0.833275
-1.04829
-0.0410899
-0.219422
0.117047
0.265636
0.206822
-0.29782
-0.0290799
-0.567086
0.587757
-0.891572
0.525358
-0.347806
-0.904516
0.643684
-0.287676
-0.0396133
-0.714222
-0.341383
0.998482
0.512286
-0.89663
0.984703
-0.540032
0.157405
-0.0123373
-0.321858
0.405344
0.080393
0.245976
0.50587
0.122121
-0.795114
-0.713552
-0.760832
0.452288
0.49327
-0.0586519
-0.576791
0.926184
-0.470895
-0.468363
0.451542
0.181299
-0.37288
0.0952259
0.893623
0.587507
0.381003
-0.44776
0.585989
-0.106711
-0.34439
0.570692
0.353257
0.813015
-0.441645
-0.968602
0.218359
0.638748
0.277374
-0.275771
-0.239131
0.48226
0.0106776
0.108104
0.0319033
-0.500836
0.941385
0.357757
-0.562771
-0.589237
0.889394
0.881674
0.651789
-0.483486
-0.0980646
0.606976
-0.860452
-0.642097
-0.902348
0.678574
0.208359
-0.246738
0.260702
-0.39555
-0.433723
0.866681
-0.28941
0.850834
0.367787
0.913222
-0.491135
-0.781326
0.413715
0.519543
0.218712
-0.66997
-0.976509
0.160097
0.687787
-0.546377
0.630587
0.577181
-0.664703
0.282376
-0.906305
0.312197
-0.172212
-0.802285
0.6701
-0.0745602
0.887725
-0.078707
0.678701
0.148427
0.525743
-0.755022
-0.0325153
-0.838409
-0.970386
-0.57471
-0.925187
-0.461521
-0.356036
0.683345
-0.741595
0.842713
0.800325
-0.918488
0.0266029
0.488112
-0.41001
-0.34664
0.0652932
-0.168868
0.935736
0.158988
-0.817372
-0.0359987
0.356703
0.725727
0.59334
0.244428
-0.17661
0.367666
-0.645984
-0.700236
0.612644
0.468057
-0.719729
0.538607
0.78563
-0.463833
-0.77787
-0.570405
-0.993538
-0.761242
-0.707729
0.806787
-0.688954
0.386232
0.294899
-0.0263465
1.02263
-0.619863
0.815135
0.831235
0.51918
0.908464
-0.398995
-0.124117
0.761193
-0.643372
-0.910633
-0.464785
0.724293
-0.486833
-0.25466
0.26204
0.979515
0.349801
-0.0208053
0.659137
0.810057
0.159931
-0.911268
0.838963
0.398688
-0.618997
0.636527
0.790146
0.696046
0.058899
-0.371409
0.684394
0.390142
-0.772707
0.568589
-0.179977
-0.857997
-0.763747
0.695906
0.969855
-0.438063
0.816217
-0.494931
-0.682826
-0.760255
0.265151
0.76012
-0.743641
-0.363618
-0.366694
0.839584
-0.318067
0.99362
0.930797
-0.692154
0.191925
-0.664406
0.953596
-0.0342615
-0.97219
-0.105755
0.445945
0.692259
-0.804913
0.785443
0.461326
0.01511
0.867103
0.401478
-0.288984
1.01333
-0.910018
-0.511606
-0.530971
-0.592844
-0.0356662
0.627993
-1.04238
0.0595081
-0.554541
-0.264033
-0.0784635
-0.0856588
-0.51219
-0.127703
0.222187
0.679735
0.204061
0.175782
-0.409381
0.231871
-0.929972
-0.924136
-0.07587
-0.734885
0.861307
-0.815021
0.280225
0.855412
0.68208
0.991241
0.819371
0.772062
-0.481526
-0.7116
-0.820782
0.375091
-0.902523
-0.759515
-0.565401
-0.457064
0.0431256
0.453491
0.452492
0.422869
-0.771567
-0.313439
0.0428766
0.432494
0.855246
0.693223
-0.335636
0.850309
0.830651
0.624022
-0.809611
0.630394
0.762036
0.427781
0.485805
0.455553
0.461855
0.305176
0.275238
1.05507
0.659775
0.316815
0.35542
0.691053
0.647318
0.808252
-0.766011
-0.417624
0.146155
0.691266
-0.994755
0.374588
-0.62927
0.107849
-0.192919
-0.774024
-0.198928
0.471445
-0.84875
-0.429841
0.0599394
-0.658361
-0.799447
-0.166588
0.812253
0.686358
-0.711035
0.274108
-0.00846565
0.516579
0.254437
-0.414889
-0.0765884
-0.390143
-0.723836
-0.429271
-0.600124
-0.489847
0.153106
0.546031
-0.798581
0.158351
-0.0793812
-0.427851
-0.7338
0.7277
-0.201875
0.0672727
0.199145
-0.0506257
0.637432
-0.740915
0.291013
0.837985
0.0924969
0.103266
0.524343
0.381461
-0.622626
-0.484123
-0.101959
0.631811
0.100988
0.821452
-0.758332
0.377152
-0.499751
-0.261101
0.88252
0.545288
-0.812425
-0.904179
-0.356089
0.108194
-0.339128
-0.0301611
-0.164106
0.384033
-0.901324
-0.929433
-0.591629
0.674544
-0.717312
0.656551
0.512528
0.386621
-0.19735
0.0368711
-0.184293
0.254766
0.618947
0.576105
-0.188165
-0.346264
0.487575
0.0717356
-0.969112
0.879757
0.695047
0.918192
0.425045
0.882622
-0.993084
-0.871317
-0.00918401
-0.332211
0.0985221
0.82671
-0.873214
0.135634
0.86175
-0.464843
-0.189823
-0.844126
-0.765459
-0.677294
0.542495
0.0371914
0.359577
-0.689422
-0.782785
-0.087675
0.976701
0.0290497
0.566061
0.464277
-0.704397
0.797332
0.32407
0.777599
0.515141
-0.236314
0.731409
0.576913
0.016011
-0.294734
-0.829509
1.08558
-0.595158
-0.683368
0.332394
-0.727163
-0.275214
0.846471
-0.504629
0.104754
-0.7352
-1.00097
-0.876479
0.534738
-0.618737
-0.734339
-0.513481
-0.674855
0.369786
-0.878287
0.789422
0.452338
0.699712
0.133456
0.229937
0.214853
0.902534
-0.109843
-0.26309
-0.199704
0.541194
-0.0732437
-0.203421
-0.98106
0.243388
0.928497
-0.641563
-0.904824
0.870592
-0.146193
0.181506
-0.864608
-0.108327
0.305027
0.759769
0.240117
0.645764
-0.703529
0.565262
0.0155495
-0.600765
0.354683
-0.532112
-0.901054
-0.511861
0.697824
0.313799
-0.609327
-0.412018
-0.94929
0.190969
-0.870825
-0.0225338
0.987548
-0.851885
-0.779146
0.916045
-0.493448
-0.68397
0.786636
0.360359
0.497537
0.922028
-0.747968
-0.197436
0.681797
0.492149
-0.551673
0.978269
0.0574108
0.676927
-0.422113
-0.607869
0.931765
-0.52355
-0.10516
0.700777
0.845104
0.409156
-0.7282
0.821604
-0.428826
-0.726159
-0.181575
-0.330101
-0.571798
-0.0877228
-0.710157
0.00141311
0.373735
-0.827897
-0.677067
-0.147154
-0.995507
-0.353376
0.580335
0.725746
-0.894046
-0.896262
0.773147
0.163364
0.567615
-0.868299
0.575459
0.499379
-0.391849
-0.524308
0.128968
-0.6016
0.766598
0.346539
-0.760641
-0.751527
0.693284
0.0577842
-0.282105
-0.811855
-0.902937
0.103362
0.189558
0.452373
0.275465
0.551331
-0.69478
0.369597
-0.834865
0.96063
0.145526
-0.728911
-0.935632
0.00779085
0.531808
0.627198
0.031425
0.00991204
0.138459
0.579848
0.485604
-0.73967
-0.962024
0.252202
0.531904
-0.661101
0.536202
0.300153
0.335119
-0.792867
0.445465
0.432182
0.321931
-0.322143
-0.115444
-0.354979
-0.69607
0.255974
0.876976
-0.605677
0.150406
0.11252
-0.316354
0.214773
-0.987756
-0.900134
-0.153244
0.0436689
0.109778
0.978118
-0.316755
-0.404618
-0.761552
-0.278779
0.847583
0.845317
-0.00144476
0.348258
0.14547
-0.666326
0.566827
-0.366231
0.765857
-0.111242
0.311626
-0.349588
0.486155
0.540813
0.840188
0.453149
0.935137
-0.0094069
-0.434331
-0.399451
-0.794634
-0.422087
-0.299585
0.0521224
0.621582
0.810193
0.0302401
-0.695173
-0.594425
0.268688
0.0260473
-0.746842
0.114005
-0.975397
0.601416
-0.740525
-0.641723
0.168242
-0.106757
-0.875867
-0.942999
-0.795131
-0.225455
0.543156
0.745682
-0.385267
-0.0036948
0.680819
0.605326
0.561974
-0.718632
0.810692
-0.860112
-0.018217
-0.137185
0.76147
-0.208024
0.893055
-0.933704
0.19755
0.161743
0.0923436
0.450708
-0.724252
0.116946
0.0521239
-0.464777
0.475223
-0.779634
0.428466
0.599356
-0.722633
0.633335
-0.626099
0.820523
0.379017
-0.0113657
-0.183172
0.059836
-0.297973
-0.523842
0.33642
-0.595347
-0.48131
-0.679139
0.278928
-0.71984
0.233212
0.214752
-0.633599
-0.673152
-0.689075
0.474327
0.763222
-0.468646
-0.45569
-0.227488
0.133236
-0.999975
0.0357119
-0.438298
0.677949
0.298182
-0.813662
-0.979783
0.18707
0.574054
-0.00713963
0.946219
-0.153059
0.787204
-0.69073
0.975094
0.991473
-0.148246
-0.701919
0.313796
0.128083
0.413044
-0.619836
0.474539
0.725557
-0.258271
0.113816
0.488779
0.212741
0.373462
-0.695875
-0.477652
0.500054
0.300997
0.0346812
0.130379
-0.239368
0.0486342
0.0309542
0.786518
-0.196228
-0.831141
0.949999
0.638046
0.694323
-0.933819
0.412756
0.70959
-0.0858952
0.765693
-0.0352994
-0.957812
0.084582
0.384164
0.516728
-0.150561
-0.673629
-0.569933
-0.788784
0.370013
0.899152
-0.308288
0.938616
0.360367
0.98218
-0.0267033
-0.362698
-0.545989
-0.900636
0.66419
-0.578387
0.0481809
1.00471
-0.641055
-0.575514
0.505941
-0.775258
0.861036
0.211701
0.193702
0.568044
-0.823599
0.141735
-0.308075
0.560566
-0.302237
0.741842
0.686459
0.000827477
0.783959
0.152096
0.0763503
-0.478074
0.0518723
-0.573812
-0.495895
-0.828275
-0.225311
0.03555
-0.732977
-0.380037
0.602207
0.486861
-0.387998
0.699411
0.71826
0.91756
0.947947
0.575466
0.184116
0.0829643
0.143509
0.266362
-0.736
0.835434
-0.133772
0.162239
0.376799
-0.574315
-1.00603
0.256382
0.754152
0.116574
0.739469
-0.204506
0.542762
-0.60987
-0.321581
-0.605116
0.421614
0.126526
0.159892
0.0904945
-0.502309
0.525332
-0.298198
-0.881405
0.44555
-0.34262
0.694061
-0.304814
0.783113
-0.142485
0.896933
0.981543
-0.291468
-0.251174
-0.112014
-0.961633
0.25868
0.0442373
0.275242
0.00629619
-0.839189
0.132117
0.786894
0.694874
0.382897
-0.285239
-0.797893
-0.21148
0.783608
0.320605
0.770948
-0.811845
-0.149279
-0.52725
-0.69325
-0.701603
0.118669
-0.999189
-0.124666
-0.152447
-0.161619
-0.242068
-0.159564
0.511386
0.506758
0.795082
0.56119
-0.191728
-0.160681
-0.132625
0.814568
0.000130012
0.951868
0.616358
-0.296297
0.318774
-0.722349
-0.0941903
-0.892705
-0.93453
-0.773585
0.878242
-0.746375
0.0771358
-0.649008
-0.439625
0.375533
0.469662
-0.438814
-0.749134
-0.682785
0.399568
0.0087985
0.157651
-0.0890465
-0.484443
-0.0472674
-0.527857
0.323828
0.792052
0.339518
0.138396
-0.207818
0.291386
-0.245246
0.495884
-0.38984
0.0324058
-0.598306
-0.282545
0.097876
-0.371891
-0.404303
0.351501
0.705244
-0.0533106
0.911876
0.0807773
-0.583649
-0.526938
0.331644
-0.266434
0.87263
-0.659558
0.891216
-0.216417
-0.144001
-0.156051
0.255726
-0.820173
-0.363999
-0.404756
0.318223
0.428182
0.88663
-0.927022
-0.0759332
-0.50321
0.105384
0.325761
0.214245
-0.79674
0.953869
0.809942
0.545537
0.730302
-0.243369
0.584886
-0.205879
0.192927
1.029
-1.00137
0.906548
0.812328
-0.654682
0.797764
-0.404089
0.267976
-0.38923
0.851637
0.447803
0.277714
-0.642758
-0.30887
-0.188095
-0.613021
-0.160996
0.629964
-0.192143
0.944388
-0.0442757
-0.955454
-0.852352
-0.0904063
0.854488
0.702408
-0.431292
-0.388881
0.169044
0.308599
0.784101
0.108743
0.380134
0.690649
-0.0789292
0.792111
0.488414
0.516982
0.0600869
-0.869873
0.368619
-0.49211
0.407841
0.8155
0.273917
-0.886262
-0.850989
-0.887078
0.743702
0.0873787
-0.845335
-0.305359
0.0238575
-0.795043
0.616116
-0.181382
0.907365
-0.822273
0.489464
0.0764094
0.411361
0.33513
-0.77932
-0.13354
-0.0357851
0.0947867
-0.384263
-0.547372
-0.376795
0.718657
-0.417245
1.03945
-0.698711
1.0568
0.717306
0.500465
-0.895665
0.956335
0.631619
0.956103
0.0330014
0.665911
-0.452538
0.959504
0.88275
-0.903246
-0.162151
0.783018
-0.665791
-0.672686
-0.215537
0.882099
0.636407
0.0445793
-0.313006
-0.446342
-0.892031
0.345565
0.0177225
-0.225993
0.0642217
0.648102
-0.159428
0.356968
0.501057
-0.426845
-0.208766
0.69541
-0.452278
-0.487313
0.640801
0.460351
-0.924684
-0.909092
0.431736
0.891241
-0.75261
-0.737511
0.733986
-0.418401
-0.485162
-0.345022
-0.562339
-0.809318
0.637993
0.0776916
-0.287058
0.788795
-0.565308
0.773498
-0.437198
0.546538
0.448718
0.394831
-0.300335
-0.0349491
0.901787
0.580917
-0.321306
-0.460657
1.08289
-0.800878
0.896412
-0.939148
-0.698089
0.261324
-0.988179
-0.457796
0.58354
0.745807
0.0488386
-0.765093
-0.625252
0.525937
-0.635976
0.965777
-0.427769
0.1198
0.766008
0.0497568
-0.106702
-0.623566
-0.376587
-0.666527
0.567424
0.338354
0.232325
0.559229
-0.0624958
0.892786
0.990505
-0.0951923
-0.903308
0.886917
-0.03434
-0.608494
0.207969
-0.0225193
-0.0662892
-0.208491
-0.276713
-0.942486
-0.0351483
0.0625077
0.583451
0.328876
0.0397207
-0.801485
-0.551324
-0.194272
0.248272
0.341975
0.134538
0.796943
0.609249
-0.20802
0.135297
-0.158426
-0.648791
-0.945432
-0.26564
-0.658286
-0.0406248
-0.168948
-0.780592
0.996223
0.222559
0.554849
-0.0432548
-0.823786
-0.682592
0.552899
-0.786217
0.192961
-0.378348
0.797234
-0.478163
0.728032
0.964805
-0.0294869
-0.46624
0.244021
-0.777151
0.593401
0.146972
0.975205
-0.539722
-0.82374
-0.259133
-0.188512
-0.769172
0.497672
0.153202
0.190203
-0.671276
0.381834
0.115238
0.551282
-0.181566
-0.982246
0.707552
0.0465426
0.643557
0.921335
-0.760497
-0.668131
0.71857
-0.23866
-0.9401
0.714319
0.731853
-0.406339
-0.0416603
-0.955659
-0.738041
0.999303
0.966078
-0.277763
-0.824436
-0.270611
0.533725
-0.593608
-0.772939
-0.313073
0.587371
-0.373027
-0.931239
-0.169918
-0.838703
-0.0928613
-0.181114
0.741714
0.933737
-0.626856
0.669296
-0.82676
-0.294987
0.454524
-0.0963639
-0.235087
0.168843
-0.333567
0.268935
-0.947715
-0.183217
0.674
-0.873514
-0.323148
-0.679674
-0.69795
0.406241
0.876495
-0.291559
0.633302
-0.436578
-0.694964
-0.810913
-0.367817
0.0168684
-0.703846
0.519377
0.746455
-0.889227
0.453114
-0.8804
0.846728
0.626354
-0.175387
0.301252
-0.439066
0.589526
-0.529905
0.227367
-0.0519005
-0.402723
0.938141
-0.431368
-0.276237
-0.385007
-0.088598
0.0258124
-0.978766
-0.212103
0.734253
0.654536
0.351319
-0.960711
0.843623
0.983501
0.0561574
-0.860223
0.502878
-0.197387
-0.74945
-0.0440082
-0.0777877
-0.902722
-0.417655
0.746825
0.39853
0.143279
0.336351
0.868624
-0.629354
-0.71555
-0.534099
-0.691213
-0.146918
0.189664
-0.0762202
0.764484
-0.784523
-0.054986
-0.447619
0.94973
-0.40045
0.9037
0.989019
-0.556826
0.887201
0.0451766
-0.417049
0.390079
0.847789
-0.166499
-0.653929
-0.229998
-0.0692213
-0.0715836
-0.483174
-0.670692
-0.928305
0.853177
-0.802067
-0.557659
-0.862373
-0.336166
-0.248872
-0.00929083
0.853498
0.674908
-0.244807
-0.931025
-0.380078
0.307574
-0.981295
0.219472
0.211274
-0.992276
0.662646
0.0984751
0.0529006
-0.754404
-0.511446
-0.0993102
0.0790972
-0.165374
0.670691
-0.990124
0.763042
-0.812482
-0.660816
0.834737
-0.959305
-0.462883
-0.722921
-0.821678
0.200951
0.0282066
0.169031
0.054449
-0.296886
0.924224
0.123424
0.323036
0.231799
0.142129
-0.457492
-0.556927
0.149852
-0.794846
0.541548
-0.797247
-0.549249
-0.969898
0.103443
0.529848
-0.135272
-0.225866
0.539724
-0.37223
-0.0383479
0.878908
-0.537493
0.00234701
-0.583975
-0.260415
0.180669
0.616976
0.767792
-0.6503
-0.328575
-0.529094
-0.726076
0.794848
0.793943
0.505723
-0.0630232
-0.663549
0.948795
-0.913171
-0.458395
0.490343
-0.710418
-0.00764435
0.520445
0.393025
-0.477797
-0.614827
-0.832841
-0.938073
0.0129422
0.128812
0.940835
0.475449
-0.868841
-0.643141
-0.784966
0.311827
0.973835
0.982826
0.661528
-0.35474
-0.546267
0.935452
-0.559892
-0.752325
0.441175
0.377085
-0.415874
0.38997
0.463914
0.125731
-0.119687
0.753496
-0.881913
-0.599242
0.146521
-0.35971
-0.214069
0.313681
-0.297783
0.798873
-0.557508
-0.356948
0.274322
-0.426349
-8.85804e-05
0.489357
0.885478
-0.0262535
0.472183
0.547006
0.619006
0.925916
0.482458
-0.940886
-0.826409
-0.0763676
0.436199
-0.242283
-0.686397
-0.0998873
0.883448
0.193916
-0.346391
-0.998465
0.594674
0.80013
-0.358174
-0.619395
0.113811
0.344043
-0.820522
0.556303
0.987095
0.453801
-0.870046
-0.0129938
-0.0568428
-0.984568
0.960753
-0.58466
0.562438
0.570536
-0.587556
0.0448956
0.757122
-0.430924
0.988472
0.164371
0.199659
-0.717869
0.975184
0.0893534
0.476047
-0.371207
0.157548
0.0397769
-0.571077
0.799374
0.451326
0.453095
0.0685192
0.736813
0.152505
0.130511
0.084605
0.206547
-1.3782
-1.13261
-0.095316
-0.92173
-0.556898
-0.0176126
0.636271
-0.335128
1.31477
0.698485
0.130739
0.805047
-0.721827
-0.445862
-1.17904
-0.565186
0.581545
0.392629
-0.0240485
-0.338622
-0.350817
-0.00346806
-0.728006
-0.742712
-1.13798
1.09802
0.338813
-0.953354
-0.0413691
-0.10774
